<?xml version="1.0"?>
<opencv_storage>
<opencv_ml_svm>
  <format>3</format>
  <svmType>C_SVC</svmType>
  <kernel>
    <type>RBF</type>
    <gamma>2.2500000000000003e-03</gamma></kernel>
  <C>5.0000000000000000e-01</C>
  <term_criteria><epsilon>1.1920928955078125e-07</epsilon></term_criteria>
  <var_count>3</var_count>
  <class_count>2</class_count>
  <class_labels type_id="opencv-matrix">
    <rows>2</rows>
    <cols>1</cols>
    <dt>i</dt>
    <data>
      -1 1</data></class_labels>
  <sv_total>62</sv_total>
  <support_vectors>
    <_>
      236. 102. 208.</_>
    <_>
      235. 100. 207.</_>
    <_>
      212. 105. 200.</_>
    <_>
      236. 103. 207.</_>
    <_>
      239. 102. 209.</_>
    <_>
      203. 112. 192.</_>
    <_>
      202. 111. 194.</_>
    <_>
      203. 108. 193.</_>
    <_>
      192. 112. 187.</_>
    <_>
      197. 118. 183.</_>
    <_>
      220. 113. 201.</_>
    <_>
      207. 115. 192.</_>
    <_>
      118. 115. 120.</_>
    <_>
      178. 87. 132.</_>
    <_>
      175. 90. 134.</_>
    <_>
      186. 87. 131.</_>
    <_>
      128. 150. 139.</_>
    <_>
      192. 100. 179.</_>
    <_>
      188. 95. 186.</_>
    <_>
      197. 90. 188.</_>
    <_>
      57. 134. 121.</_>
    <_>
      57. 135. 125.</_>
    <_>
      83. 112. 132.</_>
    <_>
      90. 114. 133.</_>
    <_>
      85. 168. 142.</_>
    <_>
      161. 156. 174.</_>
    <_>
      143. 157. 175.</_>
    <_>
      31. 129. 124.</_>
    <_>
      252. 121. 126.</_>
    <_>
      153. 88. 177.</_>
    <_>
      72. 111. 125.</_>
    <_>
      147. 124. 87.</_>
    <_>
      179. 123. 129.</_>
    <_>
      153. 118. 91.</_>
    <_>
      127. 129. 90.</_>
    <_>
      150. 91. 175.</_>
    <_>
      136. 162. 163.</_>
    <_>
      164. 124. 127.</_>
    <_>
      145. 125. 131.</_>
    <_>
      93. 123. 123.</_>
    <_>
      114. 155. 96.</_>
    <_>
      108. 155. 96.</_>
    <_>
      146. 106. 138.</_>
    <_>
      165. 151. 170.</_>
    <_>
      149. 125. 124.</_>
    <_>
      226. 127. 121.</_>
    <_>
      224. 127. 126.</_>
    <_>
      166. 115. 94.</_>
    <_>
      148. 103. 130.</_>
    <_>
      121. 172. 142.</_>
    <_>
      196. 123. 130.</_>
    <_>
      100. 154. 144.</_>
    <_>
      154. 97. 137.</_>
    <_>
      191. 139. 181.</_>
    <_>
      107. 108. 129.</_>
    <_>
      215. 119. 119.</_>
    <_>
      207. 140. 197.</_>
    <_>
      135. 167. 146.</_>
    <_>
      180. 114. 99.</_>
    <_>
      180. 116. 98.</_>
    <_>
      255. 128. 128.</_>
    <_>
      68. 128. 128.</_></support_vectors>
  <decision_functions>
    <_>
      <sv_count>62</sv_count>
      <rho>-8.4631815344291039e-01</rho>
      <alpha>
        5.0000000000000000e-01 8.5476735746667434e-02
        3.6041903997148789e-01 6.7852844710528409e-02
        6.4819393368285322e-02 3.9704378574586080e-01
        3.9403307890210383e-02 2.6515863506565249e-02
        8.5059961942210799e-02 9.5927260948452400e-02
        1.4127385845433641e-02 7.4576901742377411e-02
        2.1610222622544299e-02 3.7309457640307543e-03
        1.1448772929266017e-01 7.9398634681006330e-02
        1.6590021297367230e-01 4.9329227729714942e-01
        4.5440630044618915e-02 5.4091073189868180e-02
        9.2897169681980495e-03 2.3485002635724325e-02
        1.1891113051859024e-01 4.1250650482026932e-02
        8.7352908426474543e-02 1.3194311700827624e-01
        5.3222472764713660e-02 9.0478019432711342e-04
        9.2704176387118392e-02 5.6263503710315008e-02
        5.3743415053495384e-02 5.0653006919613060e-02
        1.0116971600749705e-01 1.3763465440823955e-01
        3.9352103253362671e-02 3.7753065457103163e-02
        5.9337197139655726e-02 5.5986151552490072e-02
        3.8629583492357643e-02 1.0627286692581886e-01
        2.9669878129362753e-02 4.6067110448819733e-02
        2.7521740281805124e-02 4.2200422375226143e-02
        3.9719355476676044e-02 2.2023722702761435e-02
        9.4659224732021475e-03 7.8416814664348272e-02
        7.7658050144988139e-02 7.4502612285999956e-02
        -5.0000000000000000e-01 -5.0000000000000000e-01
        -3.6543188523681341e-01 -2.7058405163834662e-02
        -5.0000000000000000e-01 -5.9928651991349030e-02
        -5.0000000000000000e-01 -5.0000000000000000e-01
        -5.0000000000000000e-01 -5.0000000000000000e-01
        -5.0000000000000000e-01 -7.9860113180220529e-02</alpha>
      <index>
        17 52 53 54 55 56 57 58 59 60 61 12 13 14 15 16 18 19 20 21 22
        23 24 25 26 27 28 29 30 31 32 33 34 35 36 37 38 39 40 41 42 43
        44 45 46 47 48 49 50 51 0 1 2 3 4 5 6 7 8 9 10 11</index></_></decision_functions></opencv_ml_svm>
</opencv_storage>
