<?xml version="1.0"?>
<opencv_storage>
<opencv_ml_svm>
  <format>3</format>
  <svmType>C_SVC</svmType>
  <kernel>
    <type>RBF</type>
    <gamma>1.0000000000000000e-02</gamma></kernel>
  <C>10.</C>
  <term_criteria><epsilon>1.1920928955078125e-07</epsilon></term_criteria>
  <var_count>3</var_count>
  <class_count>2</class_count>
  <class_labels type_id="opencv-matrix">
    <rows>2</rows>
    <cols>1</cols>
    <dt>i</dt>
    <data>
      -1 1</data></class_labels>
  <sv_total>158</sv_total>
  <support_vectors>
    <_>
      227. 189. 97.</_>
    <_>
      235. 185. 111.</_>
    <_>
      232. 184. 105.</_>
    <_>
      208. 168. 98.</_>
    <_>
      203. 166. 113.</_>
    <_>
      215. 177. 118.</_>
    <_>
      219. 175. 108.</_>
    <_>
      206. 154. 66.</_>
    <_>
      211. 156. 58.</_>
    <_>
      208. 147. 55.</_>
    <_>
      202. 142. 60.</_>
    <_>
      214. 154. 66.</_>
    <_>
      177. 117. 68.</_>
    <_>
      201. 141. 70.</_>
    <_>
      193. 133. 64.</_>
    <_>
      169. 116. 73.</_>
    <_>
      190. 136. 73.</_>
    <_>
      186. 129. 68.</_>
    <_>
      219. 168. 70.</_>
    <_>
      210. 161. 74.</_>
    <_>
      221. 165. 82.</_>
    <_>
      209. 161. 83.</_>
    <_>
      129. 122. 67.</_>
    <_>
      127. 122. 45.</_>
    <_>
      121. 127. 50.</_>
    <_>
      124. 118. 48.</_>
    <_>
      128. 122. 55.</_>
    <_>
      171. 198. 67.</_>
    <_>
      172. 198. 56.</_>
    <_>
      176. 195. 74.</_>
    <_>
      160. 189. 80.</_>
    <_>
      175. 197. 91.</_>
    <_>
      100. 101. 156.</_>
    <_>
      96. 99. 160.</_>
    <_>
      145. 165. 120.</_>
    <_>
      102. 98. 204.</_>
    <_>
      101. 95. 186.</_>
    <_>
      117. 117. 67.</_>
    <_>
      112. 118. 77.</_>
    <_>
      110. 114. 83.</_>
    <_>
      255. 255. 255.</_>
    <_>
      65. 64. 60.</_>
    <_>
      96. 118. 116.</_>
    <_>
      65. 187. 255.</_>
    <_>
      72. 188. 254.</_>
    <_>
      64. 190. 253.</_>
    <_>
      56. 224. 225.</_>
    <_>
      61. 216. 206.</_>
    <_>
      87. 96. 63.</_>
    <_>
      251. 255. 255.</_>
    <_>
      200. 213. 211.</_>
    <_>
      87. 229. 215.</_>
    <_>
      59. 234. 221.</_>
    <_>
      233. 234. 196.</_>
    <_>
      214. 207. 178.</_>
    <_>
      207. 200. 166.</_>
    <_>
      199. 188. 159.</_>
    <_>
      106. 121. 83.</_>
    <_>
      64. 247. 233.</_>
    <_>
      60. 237. 222.</_>
    <_>
      60. 244. 226.</_>
    <_>
      66. 170. 230.</_>
    <_>
      77. 165. 228.</_>
    <_>
      86. 154. 218.</_>
    <_>
      60. 59. 48.</_>
    <_>
      141. 163. 83.</_>
    <_>
      118. 174. 187.</_>
    <_>
      97. 107. 63.</_>
    <_>
      64. 75. 143.</_>
    <_>
      86. 90. 64.</_>
    <_>
      87. 93. 53.</_>
    <_>
      91. 92. 48.</_>
    <_>
      58. 208. 199.</_>
    <_>
      66. 200. 194.</_>
    <_>
      56. 47. 47.</_>
    <_>
      67. 57. 54.</_>
    <_>
      86. 123. 153.</_>
    <_>
      88. 167. 248.</_>
    <_>
      65. 165. 246.</_>
    <_>
      70. 161. 241.</_>
    <_>
      148. 156. 94.</_>
    <_>
      87. 80. 181.</_>
    <_>
      99. 102. 56.</_>
    <_>
      255. 255. 247.</_>
    <_>
      103. 99. 78.</_>
    <_>
      78. 71. 64.</_>
    <_>
      82. 81. 67.</_>
    <_>
      95. 91. 72.</_>
    <_>
      164. 95. 127.</_>
    <_>
      167. 96. 124.</_>
    <_>
      94. 98. 77.</_>
    <_>
      117. 146. 103.</_>
    <_>
      132. 156. 103.</_>
    <_>
      98. 102. 70.</_>
    <_>
      62. 223. 230.</_>
    <_>
      64. 207. 218.</_>
    <_>
      72. 200. 210.</_>
    <_>
      81. 210. 219.</_>
    <_>
      63. 209. 218.</_>
    <_>
      67. 218. 225.</_>
    <_>
      84. 86. 84.</_>
    <_>
      83. 132. 211.</_>
    <_>
      82. 91. 84.</_>
    <_>
      62. 58. 73.</_>
    <_>
      94. 87. 76.</_>
    <_>
      51. 137. 100.</_>
    <_>
      60. 151. 105.</_>
    <_>
      46. 158. 98.</_>
    <_>
      59. 65. 19.</_>
    <_>
      38. 29. 31.</_>
    <_>
      57. 54. 45.</_>
    <_>
      248. 238. 228.</_>
    <_>
      252. 247. 232.</_>
    <_>
      51. 171. 107.</_>
    <_>
      67. 161. 107.</_>
    <_>
      64. 72. 52.</_>
    <_>
      132. 144. 139.</_>
    <_>
      101. 112. 103.</_>
    <_>
      78. 81. 38.</_>
    <_>
      175. 184. 170.</_>
    <_>
      65. 114. 196.</_>
    <_>
      67. 119. 203.</_>
    <_>
      70. 55. 133.</_>
    <_>
      80. 73. 54.</_>
    <_>
      69. 109. 197.</_>
    <_>
      145. 138. 134.</_>
    <_>
      61. 57. 157.</_>
    <_>
      57. 49. 126.</_>
    <_>
      53. 125. 209.</_>
    <_>
      46. 40. 45.</_>
    <_>
      35. 28. 31.</_>
    <_>
      39. 33. 34.</_>
    <_>
      43. 37. 38.</_>
    <_>
      68. 167. 101.</_>
    <_>
      59. 162. 102.</_>
    <_>
      62. 154. 101.</_>
    <_>
      255. 252. 237.</_>
    <_>
      255. 255. 231.</_>
    <_>
      239. 240. 220.</_>
    <_>
      131. 136. 134.</_>
    <_>
      251. 249. 252.</_>
    <_>
      65. 200. 156.</_>
    <_>
      65. 192. 145.</_>
    <_>
      49. 197. 143.</_>
    <_>
      67. 197. 143.</_>
    <_>
      54. 194. 138.</_>
    <_>
      72. 193. 145.</_>
    <_>
      71. 198. 158.</_>
    <_>
      56. 200. 151.</_>
    <_>
      61. 203. 150.</_>
    <_>
      73. 87. 65.</_>
    <_>
      64. 74. 63.</_>
    <_>
      69. 83. 56.</_>
    <_>
      66. 52. 70.</_>
    <_>
      59. 52. 60.</_>
    <_>
      64. 51. 62.</_>
    <_>
      94. 98. 62.</_>
    <_>
      104. 103. 49.</_></support_vectors>
  <decision_functions>
    <_>
      <sv_count>158</sv_count>
      <rho>-7.2946790707373665e-01</rho>
      <alpha>
        1.2637505034811092e-01 6.0422212293462230e-03
        4.8509133955348394e-02 1.3674850396128668e-01
        3.4547214881376132e-02 1.5783264269986053e-01
        1.7160202531955926e-01 2.1249808402831827e-01
        1.0404827840806813e-01 1.0322300674888979e-01
        1.5158393531206588e-01 1.4103215364289914e-01
        1.2340977117642485e-01 1.2615136289318973e-01
        1.2274059804964610e-01 1.2619778254256719e-01
        2.1998989044716723e-02 2.0199022551256350e-02
        2.1024666309516182e-01 1.1290885914611758e-01
        1.5203331388049487e-01 9.1215140493293156e-02
        7.2197568845824581e-02 1.1163570200317607e-01
        2.3164312643632051e-01 1.9161920230477641e-01
        2.5626494114634013e-01 2.5585723058226856e-01
        1.5935726745013440e-01 1.5892272064251478e-01
        2.6924728631754391e-01 2.6138168453720395e-01
        2.5804022271758498e-01 1.9584640444426432e-01
        5.9759992854186927e-02 1.2572536712571028e-01
        9.1990360581877983e-02 4.2349369133606547e-02
        2.3492711444961320e-01 2.4609759824389102e-01
        2.5456809333457786e-02 1.7404742704289444e-01
        1.6085495761994495e-01 1.2824536986258303e-01
        1.9342129841898725e-01 1.2904556338285048e-01
        6.5310383279218343e-02 2.7053161822022986e-01
        2.6638593242193798e-01 1.4104361650162134e-01
        2.7018532320669947e-01 2.5015414357946941e-01
        2.2894112607020001e-01 2.5277419460510886e-01
        1.7140531969177730e-01 2.1118645988697832e-01
        4.0821647659315036e-02 1.0526885004427304e-01
        2.0063286531909302e-01 1.9778118895577268e-01
        2.5959005402520391e-01 8.1857350876010912e-02
        2.4301938676444940e-01 2.7053207699291759e-01
        1.9303758239869373e-01 2.6799566336187675e-01
        4.3709779937653521e-02 6.1118584618059024e-02
        1.9309084893396669e-01 1.5733707901583296e-01
        2.2228600152003367e-01 1.3053344736861650e-01
        1.2063105037986939e-01 2.7025693428404957e-01
        2.6631884006981305e-01 1.8971128246087482e-01
        2.3460997289954433e-01 2.6751904984456604e-01
        1.5672833034449402e-02 9.7708392464130156e-02
        1.9012589558991114e-01 1.3340952902490855e-01
        1.1462975885711071e-01 8.9557995740106883e-03
        1.4807773297319804e-01 1.4807790605933219e-01
        7.6046460207648200e-02 2.6083567924341167e-01
        2.4990846883833329e-01 2.7436141571477893e-02
        1.1041996708142501e-01 1.4767274318811821e-01
        2.0561937710257791e-01 2.3494562018374099e-01
        2.8035477934424371e-02 1.3800342381306613e-01
        1.0832665399395550e-01 2.6801677073307140e-01
        1.5866100269372424e-01 1.7099469651170979e-01
        1.6063357311700513e-01 2.5925930237606137e-01
        1.6663244280177458e-01 2.3776811987601776e-01
        2.7046841679498207e-01 7.6921732491219601e-03
        9.9605438481284087e-02 1.8596853935204799e-01
        7.9760736763570428e-02 2.4185309827848006e-01
        1.1025699823629770e-01 1.4855285448534564e-01
        1.7985303547027992e-01 2.4369751068616807e-01
        2.5584836697238617e-01 2.7032918709350656e-01
        6.6336603103998082e-02 1.7525053589242212e-01
        2.4912533793395369e-01 1.6594312215211759e-01
        1.8333694758397773e-01 2.2997015326068243e-01
        2.6883780994040984e-01 2.5086580751657561e-01
        2.5737250242630727e-01 1.6549643938938496e-01
        2.2569043769092059e-01 2.9175132321664052e-02
        1.2898372926274271e-01 1.9158477964337944e-01
        1.1161261922531363e-02 5.7791838546394025e-02
        5.3824435357924916e-02 1.8289053531064203e-01
        2.2556903985334348e-01 1.6628386341859719e-01
        -1.4501645096411628e+00 -2.3029651156839037e-01
        -1.4391561861741617e+00 -1.5149470036948336e+00
        -1.2925451960908614e+00 -1.1132517975405063e+00
        -5.2349528463043704e-01 -7.6061678872648542e-01
        -9.3291698722740701e-01 -6.7642682178597546e-01
        -6.5342483994169021e-01 -1.1086795062353754e+00
        -1.0125639703889933e+00 -6.7520502827801288e-01
        -1.2711029809458583e+00 -8.6201095614399803e-01
        -9.2217038698998932e-01 -1.2535168364411007e+00
        -3.9625175340766622e-01 -1.1427520587491982e+00
        -1.1566646660146411e+00 -1.5377463606985697e+00</alpha>
      <index>
        140 141 142 143 144 145 146 147 148 149 150 151 152 153 154 79
        155 156 22 23 24 25 26 27 28 29 30 31 32 33 34 35 36 37 38 39 40
        41 157 42 43 44 45 46 47 48 49 50 51 52 53 54 55 56 57 58 59 60
        61 62 63 64 65 66 67 68 69 70 71 72 73 74 75 76 77 78 80 81 82
        83 84 85 86 87 88 89 90 91 92 93 94 95 96 97 98 99 100 101 102
        103 104 105 106 107 108 109 110 111 112 113 114 115 116 117 118
        119 120 121 122 123 124 125 126 127 128 129 130 131 132 133 134
        135 136 137 138 139 1 2 3 4 5 6 7 8 9 10 11 12 13 14 15 16 17 18
        19 21 20 0</index></_></decision_functions></opencv_ml_svm>
</opencv_storage>
