<?xml version="1.0"?>
<opencv_storage>
<opencv_ml_svm>
  <format>3</format>
  <svmType>C_SVC</svmType>
  <kernel>
    <type>RBF</type>
    <gamma>1.0000000000000000e-02</gamma></kernel>
  <C>10.</C>
  <term_criteria><epsilon>1.1920928955078125e-07</epsilon></term_criteria>
  <var_count>3</var_count>
  <class_count>2</class_count>
  <class_labels type_id="opencv-matrix">
    <rows>2</rows>
    <cols>1</cols>
    <dt>i</dt>
    <data>
      -1 1</data></class_labels>
  <sv_total>117</sv_total>
  <support_vectors>
    <_>
      52. 223. 225.</_>
    <_>
      69. 231. 220.</_>
    <_>
      58. 240. 220.</_>
    <_>
      63. 247. 232.</_>
    <_>
      62. 248. 229.</_>
    <_>
      65. 243. 229.</_>
    <_>
      46. 206. 198.</_>
    <_>
      60. 213. 208.</_>
    <_>
      67. 204. 207.</_>
    <_>
      58. 203. 204.</_>
    <_>
      69. 198. 195.</_>
    <_>
      59. 187. 187.</_>
    <_>
      66. 226. 232.</_>
    <_>
      76. 214. 227.</_>
    <_>
      65. 209. 220.</_>
    <_>
      70. 204. 212.</_>
    <_>
      63. 218. 227.</_>
    <_>
      79. 210. 221.</_>
    <_>
      81. 197. 210.</_>
    <_>
      131. 127. 67.</_>
    <_>
      102. 102. 162.</_>
    <_>
      120. 120. 59.</_>
    <_>
      124. 126. 44.</_>
    <_>
      123. 128. 52.</_>
    <_>
      105. 95. 65.</_>
    <_>
      113. 114. 54.</_>
    <_>
      93. 92. 50.</_>
    <_>
      92. 94. 64.</_>
    <_>
      176. 197. 88.</_>
    <_>
      166. 194. 50.</_>
    <_>
      160. 186. 67.</_>
    <_>
      167. 196. 73.</_>
    <_>
      160. 185. 81.</_>
    <_>
      171. 197. 72.</_>
    <_>
      249. 249. 253.</_>
    <_>
      80. 81. 65.</_>
    <_>
      58. 49. 59.</_>
    <_>
      74. 83. 53.</_>
    <_>
      66. 75. 60.</_>
    <_>
      70. 81. 61.</_>
    <_>
      84. 98. 68.</_>
    <_>
      62. 204. 145.</_>
    <_>
      48. 196. 142.</_>
    <_>
      54. 191. 137.</_>
    <_>
      76. 198. 152.</_>
    <_>
      69. 198. 145.</_>
    <_>
      76. 200. 157.</_>
    <_>
      66. 50. 138.</_>
    <_>
      83. 73. 55.</_>
    <_>
      139. 152. 133.</_>
    <_>
      182. 180. 169.</_>
    <_>
      79. 78. 40.</_>
    <_>
      66. 75. 42.</_>
    <_>
      70. 176. 115.</_>
    <_>
      67. 159. 106.</_>
    <_>
      57. 153. 99.</_>
    <_>
      42. 37. 37.</_>
    <_>
      37. 32. 32.</_>
    <_>
      51. 123. 201.</_>
    <_>
      61. 121. 207.</_>
    <_>
      33. 28. 30.</_>
    <_>
      46. 41. 40.</_>
    <_>
      255. 255. 237.</_>
    <_>
      191. 134. 65.</_>
    <_>
      255. 246. 234.</_>
    <_>
      67. 151. 99.</_>
    <_>
      61. 162. 107.</_>
    <_>
      56. 156. 101.</_>
    <_>
      63. 68. 19.</_>
    <_>
      62. 71. 30.</_>
    <_>
      65. 74. 34.</_>
    <_>
      140. 151. 142.</_>
    <_>
      163. 94. 126.</_>
    <_>
      165. 91. 121.</_>
    <_>
      124. 149. 105.</_>
    <_>
      120. 142. 100.</_>
    <_>
      80. 128. 216.</_>
    <_>
      91. 127. 207.</_>
    <_>
      96. 100. 74.</_>
    <_>
      88. 88. 72.</_>
    <_>
      227. 214. 212.</_>
    <_>
      254. 254. 245.</_>
    <_>
      250. 250. 222.</_>
    <_>
      73. 165. 245.</_>
    <_>
      63. 163. 245.</_>
    <_>
      63. 57. 64.</_>
    <_>
      64. 55. 52.</_>
    <_>
      85. 82. 178.</_>
    <_>
      94. 86. 179.</_>
    <_>
      217. 163. 76.</_>
    <_>
      217. 161. 68.</_>
    <_>
      136. 151. 89.</_>
    <_>
      140. 153. 83.</_>
    <_>
      135. 164. 90.</_>
    <_>
      66. 74. 141.</_>
    <_>
      98. 103. 71.</_>
    <_>
      84. 165. 229.</_>
    <_>
      71. 169. 233.</_>
    <_>
      80. 155. 217.</_>
    <_>
      56. 51. 49.</_>
    <_>
      59. 53. 46.</_>
    <_>
      92. 100. 45.</_>
    <_>
      84. 83. 55.</_>
    <_>
      255. 255. 255.</_>
    <_>
      56. 200. 151.</_>
    <_>
      70. 184. 255.</_>
    <_>
      62. 188. 253.</_>
    <_>
      83. 192. 253.</_>
    <_>
      66. 61. 57.</_>
    <_>
      57. 192. 254.</_>
    <_>
      99. 98. 193.</_>
    <_>
      218. 186. 104.</_>
    <_>
      220. 178. 108.</_>
    <_>
      210. 173. 94.</_>
    <_>
      143. 170. 120.</_>
    <_>
      121. 128. 93.</_>
    <_>
      124. 130. 87.</_></support_vectors>
  <decision_functions>
    <_>
      <sv_count>117</sv_count>
      <rho>-7.0383576267454928e-01</rho>
      <alpha>
        1.1560165826349811e-01 1.4328403554829772e-01
        1.7936872028785639e-01 2.4393817135229942e-01
        2.9531372159168823e-01 1.3789851781750351e-01
        2.4332840494745173e-01 2.0995622911417455e-01
        2.7686980324433141e-01 2.5380128166649453e-02
        2.1960054647511301e-01 2.2184671180082172e-01
        7.8269416342552689e-02 1.8189538282692547e-01
        1.7625516146299533e-01 2.3389569025446805e-01
        2.1790376383748644e-02 2.7375448834519633e-01
        1.2908396131888092e-01 1.4618603339500683e-01
        2.5898207952839553e-01 2.9054130177822074e-01
        2.0055536141855745e-01 1.9831240002317352e-01
        2.7924305568055996e-01 2.9484863594104310e-01
        1.6730685631694953e-01 2.7302835306900985e-01
        2.9566534216136459e-01 1.4349041759123998e-01
        2.2224526800768912e-01 1.8325909207485042e-01
        2.3302784563486956e-01 2.3506553953513576e-01
        1.7436347576198707e-01 3.8754672928720202e-02
        2.7813315342259043e-01 2.8992906728285955e-01
        2.3474512701783681e-01 2.9659390663432539e-02
        2.5024686234971927e-01 2.2889214848676806e-01
        1.8296488141021483e-01 1.3883329033428027e-01
        1.8551035582210165e-01 1.1133281017014962e-01
        1.8707530958442861e-01 6.5474295344978090e-02
        1.9221269820079540e-01 1.2303561491172826e-01
        1.6447928590550118e-01 2.0411523682175103e-01
        5.6342984517588846e-02 1.6042656980044029e-01
        2.2586453556435901e-01 2.9531378525950602e-01
        1.9132959562043747e-01 2.0401427993285226e-01
        2.9616427818712848e-01 2.2667778273776196e-01
        1.8143829474809473e-01 2.8876975594132653e-01
        9.7512326654800807e-02 9.3832169208664148e-02
        6.3417481840275805e-02 2.3808192551994434e-01
        2.3551585708271572e-01 2.3784487407743599e-01
        2.1543560462974534e-01 1.6363350900388884e-01
        2.9616402968542943e-01 1.7574134027969221e-01
        1.8806919833175148e-01 1.5496364574317345e-01
        6.2434289254415541e-02 2.4963103288930358e-01
        1.5635220242115955e-01 5.2964216252481114e-02
        2.0714628051504708e-01 1.7588404452166079e-01
        1.7588393337668690e-01 2.1674174161670640e-01
        1.8532382902613326e-01 2.5982618855560702e-01
        2.6200274733599765e-01 8.8614471677515905e-02
        1.7883247667552399e-01 2.9616423974056411e-01
        5.9181715478754948e-02 2.5783968109789301e-01
        1.7109871830439966e-01 2.1648457542031091e-01
        1.5337193540232205e-01 1.3004469476527621e-03
        2.1851971432478517e-01 2.0593004975340443e-01
        1.9329058249236108e-01 1.9819274223033667e-01
        -1.4176944553723452e+00 -1.2187001809983802e+00
        -1.2573933560817363e+00 -1.2108728768120380e+00
        -2.3782491272933839e-01 -1.4586244740935661e-01
        -1.5388307449526526e+00 -1.0986551607552735e+00
        -1.6732571388126191e-01 -8.1372253329250910e-01
        -1.4266546086011638e+00 -1.0945287817855225e+00
        -8.9234243550570280e-01 -8.6023610187331168e-01
        -5.8354158317612104e-01 -4.5676663800737971e-01
        -9.0807588638373005e-01 -1.4939688928555450e+00
        -1.6154147533250289e+00</alpha>
      <index>
        23 91 92 93 94 95 96 97 98 99 100 101 102 103 104 105 106 107 55
        108 109 110 111 112 113 114 115 19 20 21 22 116 24 25 26 27 28
        29 30 31 32 33 34 35 36 37 38 39 40 41 42 43 44 45 46 47 48 49
        50 51 52 53 54 56 57 58 59 60 61 62 63 64 65 66 67 68 69 70 71
        72 73 74 75 76 77 78 79 80 81 82 83 84 85 86 87 88 89 90 0 1 2 3
        4 5 6 7 8 9 10 12 13 14 15 16 17 18 11</index></_></decision_functions></opencv_ml_svm>
</opencv_storage>
