<?xml version="1.0"?>
<opencv_storage>
<opencv_ml_svm>
  <format>3</format>
  <svmType>C_SVC</svmType>
  <kernel>
    <type>RBF</type>
    <gamma>1.0000000000000000e-02</gamma></kernel>
  <C>10.</C>
  <term_criteria><epsilon>1.1920928955078125e-07</epsilon></term_criteria>
  <var_count>3</var_count>
  <class_count>2</class_count>
  <class_labels type_id="opencv-matrix">
    <rows>2</rows>
    <cols>1</cols>
    <dt>i</dt>
    <data>
      -1 1</data></class_labels>
  <sv_total>114</sv_total>
  <support_vectors>
    <_>
      115. 110. 164.</_>
    <_>
      101. 100. 159.</_>
    <_>
      95. 94. 154.</_>
    <_>
      92. 99. 154.</_>
    <_>
      94. 98. 189.</_>
    <_>
      101. 95. 186.</_>
    <_>
      100. 101. 199.</_>
    <_>
      103. 100. 204.</_>
    <_>
      75. 78. 141.</_>
    <_>
      75. 76. 142.</_>
    <_>
      72. 76. 141.</_>
    <_>
      89. 77. 173.</_>
    <_>
      89. 83. 178.</_>
    <_>
      93. 82. 184.</_>
    <_>
      90. 78. 181.</_>
    <_>
      58. 48. 131.</_>
    <_>
      65. 54. 146.</_>
    <_>
      58. 47. 133.</_>
    <_>
      72. 55. 130.</_>
    <_>
      117. 115. 58.</_>
    <_>
      131. 134. 45.</_>
    <_>
      120. 124. 64.</_>
    <_>
      169. 192. 70.</_>
    <_>
      171. 199. 71.</_>
    <_>
      157. 183. 88.</_>
    <_>
      164. 193. 74.</_>
    <_>
      151. 174. 68.</_>
    <_>
      108. 101. 53.</_>
    <_>
      99. 103. 51.</_>
    <_>
      62. 207. 148.</_>
    <_>
      69. 200. 145.</_>
    <_>
      59. 197. 144.</_>
    <_>
      255. 255. 255.</_>
    <_>
      253. 252. 254.</_>
    <_>
      142. 171. 117.</_>
    <_>
      110. 110. 46.</_>
    <_>
      62. 225. 228.</_>
    <_>
      64. 225. 228.</_>
    <_>
      110. 117. 74.</_>
    <_>
      65. 181. 252.</_>
    <_>
      64. 186. 254.</_>
    <_>
      79. 190. 255.</_>
    <_>
      64. 58. 60.</_>
    <_>
      63. 62. 58.</_>
    <_>
      216. 176. 102.</_>
    <_>
      219. 178. 108.</_>
    <_>
      77. 89. 61.</_>
    <_>
      197. 185. 158.</_>
    <_>
      228. 216. 176.</_>
    <_>
      229. 230. 198.</_>
    <_>
      62. 247. 228.</_>
    <_>
      59. 240. 231.</_>
    <_>
      60. 236. 223.</_>
    <_>
      232. 228. 204.</_>
    <_>
      139. 168. 88.</_>
    <_>
      106. 110. 63.</_>
    <_>
      66. 167. 229.</_>
    <_>
      56. 54. 53.</_>
    <_>
      58. 54. 49.</_>
    <_>
      83. 85. 50.</_>
    <_>
      83. 94. 39.</_>
    <_>
      92. 101. 50.</_>
    <_>
      109. 124. 66.</_>
    <_>
      141. 154. 80.</_>
    <_>
      91. 92. 62.</_>
    <_>
      64. 209. 205.</_>
    <_>
      63. 200. 198.</_>
    <_>
      59. 209. 200.</_>
    <_>
      76. 77. 51.</_>
    <_>
      52. 46. 47.</_>
    <_>
      65. 56. 53.</_>
    <_>
      60. 49. 50.</_>
    <_>
      79. 166. 246.</_>
    <_>
      62. 166. 245.</_>
    <_>
      67. 156. 241.</_>
    <_>
      220. 165. 74.</_>
    <_>
      223. 167. 78.</_>
    <_>
      211. 156. 75.</_>
    <_>
      253. 252. 238.</_>
    <_>
      74. 87. 86.</_>
    <_>
      65. 217. 227.</_>
    <_>
      77. 212. 220.</_>
    <_>
      61. 212. 223.</_>
    <_>
      164. 97. 128.</_>
    <_>
      165. 91. 121.</_>
    <_>
      128. 155. 102.</_>
    <_>
      122. 147. 102.</_>
    <_>
      77. 136. 214.</_>
    <_>
      84. 133. 214.</_>
    <_>
      94. 93. 73.</_>
    <_>
      89. 82. 77.</_>
    <_>
      80. 82. 62.</_>
    <_>
      224. 215. 211.</_>
    <_>
      227. 215. 217.</_>
    <_>
      255. 247. 234.</_>
    <_>
      255. 255. 237.</_>
    <_>
      55. 134. 217.</_>
    <_>
      38. 33. 34.</_>
    <_>
      63. 157. 110.</_>
    <_>
      70. 160. 114.</_>
    <_>
      138. 155. 137.</_>
    <_>
      152. 162. 153.</_>
    <_>
      82. 84. 43.</_>
    <_>
      153. 159. 148.</_>
    <_>
      123. 135. 136.</_>
    <_>
      120. 128. 130.</_>
    <_>
      60. 162. 106.</_>
    <_>
      52. 148. 94.</_>
    <_>
      56. 169. 101.</_>
    <_>
      48. 166. 103.</_>
    <_>
      255. 248. 230.</_>
    <_>
      191. 134. 71.</_>
    <_>
      94. 90. 53.</_>
    <_>
      69. 73. 33.</_></support_vectors>
  <decision_functions>
    <_>
      <sv_count>114</sv_count>
      <rho>-7.0876509589171099e-01</rho>
      <alpha>
        4.9950386283792031e-02 1.8315965026509759e-01
        3.3387050362285633e-02 1.7844208167231562e-01
        2.8991918569790015e-01 2.9016453355224620e-01
        1.2996797247635350e-01 2.1474566767431474e-01
        2.8505492372234870e-01 1.7775486790386080e-01
        1.4855413997326222e-01 1.5833722135899492e-01
        2.0878711853043030e-01 2.0967049475423571e-01
        6.5713878470974485e-02 1.7047979243867573e-01
        2.8477395268717914e-01 1.6096093036850745e-01
        1.9626799460973893e-01 1.8934751684977219e-01
        2.9120257663505106e-01 1.6042509515193920e-01
        1.4850514157358113e-01 2.9055526149342409e-01
        1.8947496750424908e-01 7.9326840172039725e-02
        1.8329244317231208e-01 2.8304930600843276e-01
        1.5752659220391904e-01 2.8770954410691285e-01
        1.6002489017588833e-01 2.8355976546622125e-01
        1.8102993997990507e-01 1.6808546862782175e-01
        1.8341815523616362e-01 1.6083375892983887e-01
        1.4064908925078656e-01 2.9059672044504725e-01
        2.1388741088705762e-01 4.2076114863949431e-02
        1.6231775407558363e-01 1.9907361616075681e-01
        1.4266137019002223e-01 1.5982835505120696e-01
        2.6847274322261466e-01 9.6117205422736662e-02
        1.4257391590612895e-01 1.8029097876212741e-01
        1.8077699058265506e-01 1.8011782449498681e-01
        2.9123490989222223e-01 2.9101240169492643e-01
        1.8960732779964792e-01 2.0258953857774789e-01
        1.0113799576373307e-01 1.5830447478999932e-01
        1.6054019828920713e-01 2.6813489376345040e-01
        2.6100718873204753e-01 5.8303192842266247e-02
        2.2377070701203091e-02 2.9382808928242361e-03
        2.2149915641071155e-01 1.7085102774741551e-01
        1.3412359947120028e-01 2.7130760846509849e-01
        1.0274397704843304e-01 1.4712577349001274e-01
        2.0548459024869647e-01 1.2597833928849408e-01
        2.0712048727555218e-01 2.2210711539449096e-01
        7.7615747233556659e-02 8.1503440602435695e-02
        2.6156880460918963e-01 1.9974859153550190e-01
        2.0637021920532306e-01 7.8995278737732266e-02
        2.1505839055465237e-01 2.6183328237808950e-01
        1.4351222561128548e-02 2.8190102194650246e-01
        2.6633837143755560e-02 2.6626931544665677e-01
        2.2408041676958745e-01 2.0463927794212533e-01
        2.0463932811036972e-01 2.0969460647800631e-01
        2.1402705508106373e-01 1.8381419269614507e-01
        1.8825956623019363e-01 2.0994617645218033e-01
        2.2790023583572572e-01 1.1507513188789076e-01
        1.6200492480439105e-01 -1.0891263929213264e+00
        -6.9676329486894872e-01 -8.3786060105166982e-01
        -9.6353521187620617e-01 -1.0085976609070473e+00
        -3.9661018471416459e-01 -1.3560131192437868e+00
        -7.6995231607697268e-01 -2.4414811917162668e-01
        -8.0036914632972644e-01 -1.3386941271152186e+00
        -2.5080215391216865e-01 -1.0654353466450803e-02
        -8.8311605988839847e-01 -1.5481657999948135e+00
        -6.5889400118333574e-01 -1.5113982294854580e+00
        -1.1357961141854698e+00 -1.6638615218344408e+00</alpha>
      <index>
        28 93 94 95 96 97 98 99 100 101 102 103 104 105 106 55 107 108
        109 110 111 112 19 20 21 22 23 24 25 26 27 113 29 30 31 32 33 34
        35 36 37 38 39 40 41 42 43 44 45 46 47 48 49 50 51 52 53 54 56
        57 58 59 60 61 62 63 64 65 66 67 68 69 70 71 72 73 74 75 76 77
        78 79 80 81 82 83 84 85 86 87 88 89 90 91 92 1 2 3 4 5 6 7 8 9
        10 11 12 14 15 16 17 18 13 0</index></_></decision_functions></opencv_ml_svm>
</opencv_storage>
