<?xml version="1.0"?>
<opencv_storage>
<opencv_ml_svm>
  <format>3</format>
  <svmType>C_SVC</svmType>
  <kernel>
    <type>RBF</type>
    <gamma>1.0000000000000000e-02</gamma></kernel>
  <C>10.</C>
  <term_criteria><epsilon>1.1920928955078125e-07</epsilon></term_criteria>
  <var_count>3</var_count>
  <class_count>2</class_count>
  <class_labels type_id="opencv-matrix">
    <rows>2</rows>
    <cols>1</cols>
    <dt>i</dt>
    <data>
      -1 1</data></class_labels>
  <sv_total>29</sv_total>
  <support_vectors>
    <_>
      60. 237. 222.</_>
    <_>
      62. 249. 233.</_>
    <_>
      58. 233. 220.</_>
    <_>
      57. 220. 219.</_>
    <_>
      69. 206. 202.</_>
    <_>
      57. 211. 206.</_>
    <_>
      57. 214. 204.</_>
    <_>
      61. 200. 192.</_>
    <_>
      60. 226. 233.</_>
    <_>
      59. 214. 223.</_>
    <_>
      83. 195. 208.</_>
    <_>
      73. 216. 226.</_>
    <_>
      163. 196. 57.</_>
    <_>
      124. 132. 88.</_>
    <_>
      70. 71. 69.</_>
    <_>
      209. 208. 178.</_>
    <_>
      60. 58. 47.</_>
    <_>
      61. 57. 55.</_>
    <_>
      106. 110. 66.</_>
    <_>
      74. 83. 57.</_>
    <_>
      58. 195. 139.</_>
    <_>
      60. 199. 148.</_>
    <_>
      70. 77. 61.</_>
    <_>
      39. 34. 35.</_>
    <_>
      100. 100. 64.</_>
    <_>
      123. 117. 77.</_>
    <_>
      92. 95. 73.</_>
    <_>
      56. 163. 100.</_>
    <_>
      71. 176. 109.</_></support_vectors>
  <decision_functions>
    <_>
      <sv_count>29</sv_count>
      <rho>-2.7408352079018072e-01</rho>
      <alpha>
        7.2591643966269848e-01 7.0419848705378785e-01
        6.2306096452742055e-01 7.2591647529807246e-01
        4.8238404083815234e-01 4.6989454845427509e-01
        5.9912031400894639e-01 5.9942177595257640e-01
        5.3211097401541285e-01 5.3211151503183030e-01
        1.8963365773101792e-01 7.2591173847845103e-01
        4.6199986219529376e-01 6.9789697864941647e-01
        6.3561009607216956e-01 7.1968991280746331e-01
        7.1968963766046246e-01 -6.8708954471829664e-01
        -1.2166386153992190e+00 -4.8909747792592378e-01
        -5.4040812591716325e-01 -9.3965467871031993e-01
        -2.9212949799328863e-01 -8.1364808186428794e-01
        -1.1127144721988109e+00 -9.9945167101858434e-01
        -6.8756120267279297e-01 -1.2457676516662286e+00
        -1.1204063983525314e+00</alpha>
      <index>
        12 13 14 15 16 17 18 19 20 21 22 23 24 25 26 27 28 0 1 2 3 4 5 6
        7 8 9 10 11</index></_></decision_functions></opencv_ml_svm>
</opencv_storage>
